<?xml version="1.0"?>
<opencv_storage>
<myhaar type_id="opencv-haar-classifier">
  <size>
    24 24</size>
  <stages>
    <_>
      <trees>
        <_>
          <_>
            <feature>
              <rects>
                <_>
                  1 10 21 7 -1.</_>
                <_>
                  8 10 7 7 3.</_></rects>
              <tilted>0</tilted></feature>
            <threshold>0.0927104204893112</threshold>
            <left_val>-0.9102348089218140</left_val>
            <right_val>0.8550037741661072</right_val></_></_>
        <_>
          <_>
            <feature>
              <rects>
                <_>
                  6 10 12 6 -1.</_>
                <_>
                  10 10 4 6 3.</_></rects>
              <tilted>0</tilted></feature>
            <threshold>0.0333416685461998</threshold>
            <left_val>-0.8995041251182556</left_val>
            <right_val>0.7129194140434265</right_val></_></_></trees>
      <stage_threshold>-0.1973153948783875</stage_threshold>
      <parent>-1</parent>
      <next>-1</next></_>
    <_>
      <trees>
        <_>
          <_>
            <feature>
              <rects>
                <_>
                  10 5 3 3 -1.</_>
                <_>
                  11 5 1 3 3.</_></rects>
              <tilted>0</tilted></feature>
            <threshold>3.6449090112000704e-004</threshold>
            <left_val>-0.7478649020195007</left_val>
            <right_val>0.6366602778434753</right_val></_></_>
        <_>
          <_>
            <feature>
              <rects>
                <_>
                  12 3 8 9 -1.</_>
                <_>
                  14 5 4 9 2.</_></rects>
              <tilted>1</tilted></feature>
            <threshold>0.0475566908717155</threshold>
            <left_val>-0.3734813034534454</left_val>
            <right_val>0.4619373977184296</right_val></_></_>
        <_>
          <_>
            <feature>
              <rects>
                <_>
                  7 14 2 2 -1.</_>
                <_>
                  7 15 2 1 2.</_></rects>
              <tilted>0</tilted></feature>
            <threshold>-2.2101060312706977e-004</threshold>
            <left_val>0.5684822797775269</left_val>
            <right_val>-0.8072695136070252</right_val></_></_></trees>
      <stage_threshold>-0.5528640151023865</stage_threshold>
      <parent>0</parent>
      <next>-1</next></_>
    <_>
      <trees>
        <_>
          <_>
            <feature>
              <rects>
                <_>
                  7 7 10 2 -1.</_>
                <_>
                  7 7 5 1 2.</_>
                <_>
                  12 8 5 1 2.</_></rects>
              <tilted>0</tilted></feature>
            <threshold>7.9633598215878010e-004</threshold>
            <left_val>-0.6721451878547669</left_val>
            <right_val>0.6361722946166992</right_val></_></_>
        <_>
          <_>
            <feature>
              <rects>
                <_>
                  18 6 6 6 -1.</_>
                <_>
                  21 6 3 3 2.</_>
                <_>
                  18 9 3 3 2.</_></rects>
              <tilted>0</tilted></feature>
            <threshold>0.0163366906344891</threshold>
            <left_val>-0.0896390229463577</left_val>
            <right_val>0.7263860106468201</right_val></_></_>
        <_>
          <_>
            <feature>
              <rects>
                <_>
                  0 7 6 4 -1.</_>
                <_>
                  0 7 3 2 2.</_>
                <_>
                  3 9 3 2 2.</_></rects>
              <tilted>0</tilted></feature>
            <threshold>2.0002890378236771e-003</threshold>
            <left_val>-0.6485018730163574</left_val>
            <right_val>0.6387296915054321</right_val></_></_></trees>
      <stage_threshold>-0.1230544969439507</stage_threshold>
      <parent>1</parent>
      <next>-1</next></_>
    <_>
      <trees>
        <_>
          <_>
            <feature>
              <rects>
                <_>
                  3 9 18 9 -1.</_>
                <_>
                  9 12 6 3 9.</_></rects>
              <tilted>0</tilted></feature>
            <threshold>0.1475507020950317</threshold>
            <left_val>-0.8860492706298828</left_val>
            <right_val>0.5466493964195252</right_val></_></_>
        <_>
          <_>
            <feature>
              <rects>
                <_>
                  4 6 18 9 -1.</_>
                <_>
                  10 6 6 9 3.</_></rects>
              <tilted>0</tilted></feature>
            <threshold>0.0431189499795437</threshold>
            <left_val>-0.8861721158027649</left_val>
            <right_val>0.1541707962751389</right_val></_></_>
        <_>
          <_>
            <feature>
              <rects>
                <_>
                  7 4 2 6 -1.</_>
                <_>
                  7 6 2 2 3.</_></rects>
              <tilted>0</tilted></feature>
            <threshold>1.6731850337237120e-003</threshold>
            <left_val>-0.7355675101280212</left_val>
            <right_val>0.7916728258132935</right_val></_></_></trees>
      <stage_threshold>-0.0347473584115505</stage_threshold>
      <parent>2</parent>
      <next>-1</next></_>
    <_>
      <trees>
        <_>
          <_>
            <feature>
              <rects>
                <_>
                  8 6 5 12 -1.</_>
                <_>
                  8 9 5 6 2.</_></rects>
              <tilted>0</tilted></feature>
            <threshold>7.1440911851823330e-003</threshold>
            <left_val>-1.</left_val>
            <right_val>0.5395686030387878</right_val></_></_>
        <_>
          <_>
            <feature>
              <rects>
                <_>
                  11 4 6 5 -1.</_>
                <_>
                  13 4 2 5 3.</_></rects>
              <tilted>0</tilted></feature>
            <threshold>-9.4318849733099341e-004</threshold>
            <left_val>0.0643169507384300</left_val>
            <right_val>-0.5825107097625732</right_val></_></_>
        <_>
          <_>
            <feature>
              <rects>
                <_>
                  3 9 3 12 -1.</_>
                <_>
                  3 12 3 6 2.</_></rects>
              <tilted>0</tilted></feature>
            <threshold>-1.5634170267730951e-003</threshold>
            <left_val>0.7175574898719788</left_val>
            <right_val>-0.7767255902290344</right_val></_></_>
        <_>
          <_>
            <feature>
              <rects>
                <_>
                  11 13 9 4 -1.</_>
                <_>
                  11 14 9 2 2.</_></rects>
              <tilted>0</tilted></feature>
            <threshold>2.7315260376781225e-004</threshold>
            <left_val>-0.7054036855697632</left_val>
            <right_val>0.4984877109527588</right_val></_></_>
        <_>
          <_>
            <feature>
              <rects>
                <_>
                  9 4 3 3 -1.</_>
                <_>
                  10 4 1 3 3.</_></rects>
              <tilted>0</tilted></feature>
            <threshold>8.3082646597176790e-005</threshold>
            <left_val>-0.8376361131668091</left_val>
            <right_val>0.6296408176422119</right_val></_></_>
        <_>
          <_>
            <feature>
              <rects>
                <_>
                  12 11 1 4 -1.</_>
                <_>
                  11 12 1 2 2.</_></rects>
              <tilted>1</tilted></feature>
            <threshold>3.2364929211325943e-004</threshold>
            <left_val>-0.8531767129898071</left_val>
            <right_val>0.1804940998554230</right_val></_></_></trees>
      <stage_threshold>-0.2543241977691650</stage_threshold>
      <parent>3</parent>
      <next>-1</next></_>
    <_>
      <trees>
        <_>
          <_>
            <feature>
              <rects>
                <_>
                  7 10 4 2 -1.</_>
                <_>
                  9 10 2 2 2.</_></rects>
              <tilted>0</tilted></feature>
            <threshold>2.4383449635934085e-004</threshold>
            <left_val>-1.</left_val>
            <right_val>0.7120004296302795</right_val></_></_>
        <_>
          <_>
            <feature>
              <rects>
                <_>
                  13 4 4 13 -1.</_>
                <_>
                  14 5 2 13 2.</_></rects>
              <tilted>1</tilted></feature>
            <threshold>-5.0643569556996226e-004</threshold>
            <left_val>0.2086355984210968</left_val>
            <right_val>-0.8029900193214417</right_val></_></_>
        <_>
          <_>
            <feature>
              <rects>
                <_>
                  12 5 12 2 -1.</_>
                <_>
                  12 5 12 1 2.</_></rects>
              <tilted>1</tilted></feature>
            <threshold>-1.1934239882975817e-003</threshold>
            <left_val>0.7486677169799805</left_val>
            <right_val>-0.9608904719352722</right_val></_></_></trees>
      <stage_threshold>-0.0402544103562832</stage_threshold>
      <parent>4</parent>
      <next>-1</next></_>
    <_>
      <trees>
        <_>
          <_>
            <feature>
              <rects>
                <_>
                  12 1 8 3 -1.</_>
                <_>
                  14 3 4 3 2.</_></rects>
              <tilted>1</tilted></feature>
            <threshold>0.0181445199996233</threshold>
            <left_val>-0.4614663124084473</left_val>
            <right_val>0.8416522741317749</right_val></_></_>
        <_>
          <_>
            <feature>
              <rects>
                <_>
                  9 16 6 1 -1.</_>
                <_>
                  11 16 2 1 3.</_></rects>
              <tilted>0</tilted></feature>
            <threshold>1.3318659330252558e-004</threshold>
            <left_val>-0.8214635848999023</left_val>
            <right_val>0.4920149147510529</right_val></_></_>
        <_>
          <_>
            <feature>
              <rects>
                <_>
                  8 9 3 1 -1.</_>
                <_>
                  9 10 1 1 3.</_></rects>
              <tilted>1</tilted></feature>
            <threshold>1.2986200454179198e-004</threshold>
            <left_val>-0.7911571264266968</left_val>
            <right_val>0.3754447996616364</right_val></_></_>
        <_>
          <_>
            <feature>
              <rects>
                <_>
                  19 14 4 6 -1.</_>
                <_>
                  20 15 2 6 2.</_></rects>
              <tilted>1</tilted></feature>
            <threshold>4.4165798462927341e-003</threshold>
            <left_val>-0.2342451959848404</left_val>
            <right_val>0.5354303717613220</right_val></_></_></trees>
      <stage_threshold>-0.9948534965515137</stage_threshold>
      <parent>5</parent>
      <next>-1</next></_>
    <_>
      <trees>
        <_>
          <_>
            <feature>
              <rects>
                <_>
                  6 10 9 4 -1.</_>
                <_>
                  9 10 3 4 3.</_></rects>
              <tilted>0</tilted></feature>
            <threshold>0.0263557508587837</threshold>
            <left_val>0.4499801993370056</left_val>
            <right_val>-0.9547588229179382</right_val></_></_>
        <_>
          <_>
            <feature>
              <rects>
                <_>
                  18 3 6 14 -1.</_>
                <_>
                  21 3 3 7 2.</_>
                <_>
                  18 10 3 7 2.</_></rects>
              <tilted>0</tilted></feature>
            <threshold>-0.0716157704591751</threshold>
            <left_val>1.</left_val>
            <right_val>-0.1218544989824295</right_val></_></_>
        <_>
          <_>
            <feature>
              <rects>
                <_>
                  0 3 6 14 -1.</_>
                <_>
                  0 3 3 7 2.</_>
                <_>
                  3 10 3 7 2.</_></rects>
              <tilted>0</tilted></feature>
            <threshold>0.0217340793460608</threshold>
            <left_val>-0.4732170104980469</left_val>
            <right_val>0.8116992115974426</right_val></_></_></trees>
      <stage_threshold>-0.2649140954017639</stage_threshold>
      <parent>6</parent>
      <next>-1</next></_>
    <_>
      <trees>
        <_>
          <_>
            <feature>
              <rects>
                <_>
                  0 2 24 15 -1.</_>
                <_>
                  8 7 8 5 9.</_></rects>
              <tilted>0</tilted></feature>
            <threshold>0.7405700087547302</threshold>
            <left_val>-0.4569084942340851</left_val>
            <right_val>0.9157677888870239</right_val></_></_>
        <_>
          <_>
            <feature>
              <rects>
                <_>
                  17 5 2 6 -1.</_>
                <_>
                  18 5 1 3 2.</_>
                <_>
                  17 8 1 3 2.</_></rects>
              <tilted>0</tilted></feature>
            <threshold>-6.3122058054432273e-004</threshold>
            <left_val>0.6411306262016296</left_val>
            <right_val>-0.2252998054027557</right_val></_></_>
        <_>
          <_>
            <feature>
              <rects>
                <_>
                  5 5 2 6 -1.</_>
                <_>
                  5 5 1 3 2.</_>
                <_>
                  6 8 1 3 2.</_></rects>
              <tilted>0</tilted></feature>
            <threshold>-9.4913761131465435e-004</threshold>
            <left_val>0.6136971116065979</left_val>
            <right_val>-0.5702006220817566</right_val></_></_>
        <_>
          <_>
            <feature>
              <rects>
                <_>
                  13 11 5 6 -1.</_>
                <_>
                  11 13 5 2 3.</_></rects>
              <tilted>1</tilted></feature>
            <threshold>8.7734544649720192e-003</threshold>
            <left_val>-0.2058404982089996</left_val>
            <right_val>0.2108352035284042</right_val></_></_>
        <_>
          <_>
            <feature>
              <rects>
                <_>
                  11 11 6 5 -1.</_>
                <_>
                  13 13 2 5 3.</_></rects>
              <tilted>1</tilted></feature>
            <threshold>0.0166933499276638</threshold>
            <left_val>-0.6164733767509460</left_val>
            <right_val>0.6685786843299866</right_val></_></_></trees>
      <stage_threshold>-0.8908249735832214</stage_threshold>
      <parent>7</parent>
      <next>-1</next></_>
    <_>
      <trees>
        <_>
          <_>
            <feature>
              <rects>
                <_>
                  8 1 12 6 -1.</_>
                <_>
                  11 4 6 6 2.</_></rects>
              <tilted>1</tilted></feature>
            <threshold>0.1414058953523636</threshold>
            <left_val>-0.4028309881687164</left_val>
            <right_val>0.8541839718818665</right_val></_></_>
        <_>
          <_>
            <feature>
              <rects>
                <_>
                  12 9 3 6 -1.</_>
                <_>
                  10 11 3 2 3.</_></rects>
              <tilted>1</tilted></feature>
            <threshold>1.0320640285499394e-004</threshold>
            <left_val>-0.5926275849342346</left_val>
            <right_val>0.1778990030288696</right_val></_></_>
        <_>
          <_>
            <feature>
              <rects>
                <_>
                  12 11 4 1 -1.</_>
                <_>
                  13 12 2 1 2.</_></rects>
              <tilted>1</tilted></feature>
            <threshold>2.3669000074733049e-004</threshold>
            <left_val>-1.</left_val>
            <right_val>0.3971632122993469</right_val></_></_>
        <_>
          <_>
            <feature>
              <rects>
                <_>
                  6 15 12 9 -1.</_>
                <_>
                  10 18 4 3 9.</_></rects>
              <tilted>0</tilted></feature>
            <threshold>-0.0885034427046776</threshold>
            <left_val>0.7772688865661621</left_val>
            <right_val>-0.6731411218643189</right_val></_></_>
        <_>
          <_>
            <feature>
              <rects>
                <_>
                  2 18 20 2 -1.</_>
                <_>
                  2 18 10 1 2.</_>
                <_>
                  12 19 10 1 2.</_></rects>
              <tilted>0</tilted></feature>
            <threshold>-1.4822790399193764e-003</threshold>
            <left_val>0.7603868246078491</left_val>
            <right_val>-0.6391112804412842</right_val></_></_></trees>
      <stage_threshold>-0.6535329222679138</stage_threshold>
      <parent>8</parent>
      <next>-1</next></_></stages></myhaar>
</opencv_storage>
